<?xml version="1.0"?>
<opencv_storage>
<cascade>
  <stageType>BOOST</stageType>
  <featureType>HAAR</featureType>
  <height>50</height>
  <width>50</width>
  <stageParams>
    <boostType>GAB</boostType>
    <minHitRate>9.9500000476837158e-01</minHitRate>
    <maxFalseAlarm>5.0000000000000000e-01</maxFalseAlarm>
    <weightTrimRate>9.4999999999999996e-01</weightTrimRate>
    <maxDepth>1</maxDepth>
    <maxWeakCount>100</maxWeakCount></stageParams>
  <featureParams>
    <maxCatCount>0</maxCatCount>
    <featSize>1</featSize>
    <mode>BASIC</mode></featureParams>
  <stageNum>13</stageNum>
  <stages>
    <!-- stage 0 -->
    <_>
      <maxWeakCount>3</maxWeakCount>
      <stageThreshold>-1.5809993743896484e+00</stageThreshold>
      <weakClassifiers>
        <_>
          <internalNodes>
            0 -1 2 4.5573741197586060e-02</internalNodes>
          <leafValues>
            -9.4991654157638550e-01 2.1951219439506531e-01</leafValues></_>
        <_>
          <internalNodes>
            0 -1 14 2.3172134533524513e-02</internalNodes>
          <leafValues>
            -9.2175573110580444e-01 4.2183393239974976e-01</leafValues></_>
        <_>
          <internalNodes>
            0 -1 34 -2.6727048680186272e-03</internalNodes>
          <leafValues>
            5.2078801393508911e-01 -8.7875592708587646e-01</leafValues></_></weakClassifiers></_>
    <!-- stage 1 -->
    <_>
      <maxWeakCount>3</maxWeakCount>
      <stageThreshold>-1.6270874738693237e+00</stageThreshold>
      <weakClassifiers>
        <_>
          <internalNodes>
            0 -1 8 -8.4363333880901337e-02</internalNodes>
          <leafValues>
            1.8750000000000000e-01 -9.3092107772827148e-01</leafValues></_>
        <_>
          <internalNodes>
            0 -1 25 4.8993080854415894e-03</internalNodes>
          <leafValues>
            -9.4814127683639526e-01 4.6273481100797653e-02</leafValues></_>
        <_>
          <internalNodes>
            0 -1 6 -3.6596350371837616e-02</internalNodes>
          <leafValues>
            2.5197491049766541e-01 -1.</leafValues></_></weakClassifiers></_>
    <!-- stage 2 -->
    <_>
      <maxWeakCount>3</maxWeakCount>
      <stageThreshold>-1.7110922336578369e+00</stageThreshold>
      <weakClassifiers>
        <_>
          <internalNodes>
            0 -1 33 -4.6795029193162918e-02</internalNodes>
          <leafValues>
            -2.8358209133148193e-01 -9.4415360689163208e-01</leafValues></_>
        <_>
          <internalNodes>
            0 -1 4 3.1522540375590324e-03</internalNodes>
          <leafValues>
            -9.1249889135360718e-01 1.2560950219631195e-01</leafValues></_>
        <_>
          <internalNodes>
            0 -1 17 5.2563282661139965e-03</internalNodes>
          <leafValues>
            -8.9254814386367798e-01 3.4346285462379456e-01</leafValues></_></weakClassifiers></_>
    <!-- stage 3 -->
    <_>
      <maxWeakCount>3</maxWeakCount>
      <stageThreshold>-1.4640778303146362e+00</stageThreshold>
      <weakClassifiers>
        <_>
          <internalNodes>
            0 -1 1 2.4926212430000305e-01</internalNodes>
          <leafValues>
            -9.3698173761367798e-01 1.3513512909412384e-01</leafValues></_>
        <_>
          <internalNodes>
            0 -1 19 -5.2793055772781372e-02</internalNodes>
          <leafValues>
            4.0175437927246094e-01 -7.8158044815063477e-01</leafValues></_>
        <_>
          <internalNodes>
            0 -1 0 1.2027070857584476e-02</internalNodes>
          <leafValues>
            -9.2885047197341919e-01 3.8281056284904480e-01</leafValues></_></weakClassifiers></_>
    <!-- stage 4 -->
    <_>
      <maxWeakCount>4</maxWeakCount>
      <stageThreshold>-1.9357982873916626e+00</stageThreshold>
      <weakClassifiers>
        <_>
          <internalNodes>
            0 -1 36 -3.4619763493537903e-02</internalNodes>
          <leafValues>
            6.4705884456634521e-01 -9.1653293371200562e-01</leafValues></_>
        <_>
          <internalNodes>
            0 -1 18 -6.4860028214752674e-03</internalNodes>
          <leafValues>
            3.7653335928916931e-01 -8.1788533926010132e-01</leafValues></_>
        <_>
          <internalNodes>
            0 -1 31 -1.1316422373056412e-02</internalNodes>
          <leafValues>
            5.6497603654861450e-01 -7.4774903059005737e-01</leafValues></_>
        <_>
          <internalNodes>
            0 -1 13 -2.8733868384733796e-04</internalNodes>
          <leafValues>
            6.7980051040649414e-01 -6.4804965257644653e-01</leafValues></_></weakClassifiers></_>
    <!-- stage 5 -->
    <_>
      <maxWeakCount>3</maxWeakCount>
      <stageThreshold>-1.5306643247604370e+00</stageThreshold>
      <weakClassifiers>
        <_>
          <internalNodes>
            0 -1 39 -2.1539016161113977e-03</internalNodes>
          <leafValues>
            1.0526315867900848e-01 -9.3687707185745239e-01</leafValues></_>
        <_>
          <internalNodes>
            0 -1 32 -1.1514343786984682e-03</internalNodes>
          <leafValues>
            3.4487023949623108e-01 -8.1219106912612915e-01</leafValues></_>
        <_>
          <internalNodes>
            0 -1 5 2.9034037142992020e-02</internalNodes>
          <leafValues>
            -8.2373642921447754e-01 4.0635275840759277e-01</leafValues></_></weakClassifiers></_>
    <!-- stage 6 -->
    <_>
      <maxWeakCount>3</maxWeakCount>
      <stageThreshold>-1.2988646030426025e+00</stageThreshold>
      <weakClassifiers>
        <_>
          <internalNodes>
            0 -1 10 -1.0711989365518093e-02</internalNodes>
          <leafValues>
            1. -9.1082805395126343e-01</leafValues></_>
        <_>
          <internalNodes>
            0 -1 38 -6.4786651637405157e-04</internalNodes>
          <leafValues>
            3.7375614047050476e-01 -8.7100327014923096e-01</leafValues></_>
        <_>
          <internalNodes>
            0 -1 16 2.9095266945660114e-03</internalNodes>
          <leafValues>
            -7.6179277896881104e-01 4.8521322011947632e-01</leafValues></_></weakClassifiers></_>
    <!-- stage 7 -->
    <_>
      <maxWeakCount>3</maxWeakCount>
      <stageThreshold>-1.2878124713897705e+00</stageThreshold>
      <weakClassifiers>
        <_>
          <internalNodes>
            0 -1 7 -6.5419815480709076e-02</internalNodes>
          <leafValues>
            1. -9.0174329280853271e-01</leafValues></_>
        <_>
          <internalNodes>
            0 -1 3 1.3218445703387260e-02</internalNodes>
          <leafValues>
            -8.3383846282958984e-01 3.7140232324600220e-01</leafValues></_>
        <_>
          <internalNodes>
            0 -1 30 -4.0705691208131611e-04</internalNodes>
          <leafValues>
            4.5604696869850159e-01 -7.5747150182723999e-01</leafValues></_></weakClassifiers></_>
    <!-- stage 8 -->
    <_>
      <maxWeakCount>3</maxWeakCount>
      <stageThreshold>-1.5875731706619263e+00</stageThreshold>
      <weakClassifiers>
        <_>
          <internalNodes>
            0 -1 29 -4.0871530771255493e-02</internalNodes>
          <leafValues>
            1. -9.2000001668930054e-01</leafValues></_>
        <_>
          <internalNodes>
            0 -1 21 -5.1258518360555172e-03</internalNodes>
          <leafValues>
            7.7450901269912720e-02 -9.4845169782638550e-01</leafValues></_>
        <_>
          <internalNodes>
            0 -1 11 1.5443240106105804e-01</internalNodes>
          <leafValues>
            -7.4502408504486084e-01 5.0207829475402832e-01</leafValues></_></weakClassifiers></_>
    <!-- stage 9 -->
    <_>
      <maxWeakCount>4</maxWeakCount>
      <stageThreshold>-2.2850432395935059e+00</stageThreshold>
      <weakClassifiers>
        <_>
          <internalNodes>
            0 -1 26 -3.1238267198204994e-02</internalNodes>
          <leafValues>
            4.4444444775581360e-01 -9.1318327188491821e-01</leafValues></_>
        <_>
          <internalNodes>
            0 -1 24 -1.1873589828610420e-03</internalNodes>
          <leafValues>
            3.5409688949584961e-02 -9.2706477642059326e-01</leafValues></_>
        <_>
          <internalNodes>
            0 -1 35 -8.7898243218660355e-03</internalNodes>
          <leafValues>
            3.0146908760070801e-01 -8.0766367912292480e-01</leafValues></_>
        <_>
          <internalNodes>
            0 -1 9 1.8042477313429117e-03</internalNodes>
          <leafValues>
            -9.1700583696365356e-01 3.6286842823028564e-01</leafValues></_></weakClassifiers></_>
    <!-- stage 10 -->
    <_>
      <maxWeakCount>3</maxWeakCount>
      <stageThreshold>-1.6609169244766235e+00</stageThreshold>
      <weakClassifiers>
        <_>
          <internalNodes>
            0 -1 27 -1.0385643690824509e-01</internalNodes>
          <leafValues>
            5.5555558204650879e-01 -9.1639870405197144e-01</leafValues></_>
        <_>
          <internalNodes>
            0 -1 12 3.5910136997699738e-02</internalNodes>
          <leafValues>
            -9.4263768196105957e-01 8.7872743606567383e-02</leafValues></_>
        <_>
          <internalNodes>
            0 -1 22 2.6826147222891450e-04</internalNodes>
          <leafValues>
            -8.3239090442657471e-01 4.2244040966033936e-01</leafValues></_></weakClassifiers></_>
    <!-- stage 11 -->
    <_>
      <maxWeakCount>3</maxWeakCount>
      <stageThreshold>-1.0780804157257080e+00</stageThreshold>
      <weakClassifiers>
        <_>
          <internalNodes>
            0 -1 20 -3.9007230661809444e-03</internalNodes>
          <leafValues>
            1. -9.1693288087844849e-01</leafValues></_>
        <_>
          <internalNodes>
            0 -1 28 -1.7632991075515747e-03</internalNodes>
          <leafValues>
            1. -7.4516910314559937e-01</leafValues></_>
        <_>
          <internalNodes>
            0 -1 15 -9.9838885944336653e-05</internalNodes>
          <leafValues>
            5.8402156829833984e-01 -7.7112442255020142e-01</leafValues></_></weakClassifiers></_>
    <!-- stage 12 -->
    <_>
      <maxWeakCount>2</maxWeakCount>
      <stageThreshold>-1.1102230246251565e-16</stageThreshold>
      <weakClassifiers>
        <_>
          <internalNodes>
            0 -1 23 1.0793366469442844e-02</internalNodes>
          <leafValues>
            -9.7368419170379639e-01 1.</leafValues></_>
        <_>
          <internalNodes>
            0 -1 37 6.6214342950843275e-05</internalNodes>
          <leafValues>
            -1. 1.</leafValues></_></weakClassifiers></_></stages>
  <features>
    <_>
      <rects>
        <_>
          0 28 36 4 -1.</_>
        <_>
          18 28 18 4 2.</_></rects>
      <tilted>0</tilted></_>
    <_>
      <rects>
        <_>
          1 28 48 17 -1.</_>
        <_>
          17 28 16 17 3.</_></rects>
      <tilted>0</tilted></_>
    <_>
      <rects>
        <_>
          3 40 45 3 -1.</_>
        <_>
          18 40 15 3 3.</_></rects>
      <tilted>0</tilted></_>
    <_>
      <rects>
        <_>
          5 19 37 8 -1.</_>
        <_>
          5 23 37 4 2.</_></rects>
      <tilted>0</tilted></_>
    <_>
      <rects>
        <_>
          6 13 6 11 -1.</_>
        <_>
          9 13 3 11 2.</_></rects>
      <tilted>0</tilted></_>
    <_>
      <rects>
        <_>
          8 35 30 13 -1.</_>
        <_>
          18 35 10 13 3.</_></rects>
      <tilted>0</tilted></_>
    <_>
      <rects>
        <_>
          9 36 41 14 -1.</_>
        <_>
          9 43 41 7 2.</_></rects>
      <tilted>0</tilted></_>
    <_>
      <rects>
        <_>
          10 35 12 14 -1.</_>
        <_>
          10 42 12 7 2.</_></rects>
      <tilted>0</tilted></_>
    <_>
      <rects>
        <_>
          10 35 27 12 -1.</_>
        <_>
          10 41 27 6 2.</_></rects>
      <tilted>0</tilted></_>
    <_>
      <rects>
        <_>
          11 26 12 10 -1.</_>
        <_>
          15 26 4 10 3.</_></rects>
      <tilted>0</tilted></_>
    <_>
      <rects>
        <_>
          12 4 19 9 -1.</_>
        <_>
          12 7 19 3 3.</_></rects>
      <tilted>0</tilted></_>
    <_>
      <rects>
        <_>
          13 0 31 34 -1.</_>
        <_>
          13 17 31 17 2.</_></rects>
      <tilted>0</tilted></_>
    <_>
      <rects>
        <_>
          13 28 33 13 -1.</_>
        <_>
          24 28 11 13 3.</_></rects>
      <tilted>0</tilted></_>
    <_>
      <rects>
        <_>
          14 34 10 1 -1.</_>
        <_>
          19 34 5 1 2.</_></rects>
      <tilted>0</tilted></_>
    <_>
      <rects>
        <_>
          15 9 7 20 -1.</_>
        <_>
          15 19 7 10 2.</_></rects>
      <tilted>0</tilted></_>
    <_>
      <rects>
        <_>
          16 7 16 2 -1.</_>
        <_>
          16 7 8 1 2.</_>
        <_>
          24 8 8 1 2.</_></rects>
      <tilted>0</tilted></_>
    <_>
      <rects>
        <_>
          16 22 9 6 -1.</_>
        <_>
          19 22 3 6 3.</_></rects>
      <tilted>0</tilted></_>
    <_>
      <rects>
        <_>
          17 11 12 8 -1.</_>
        <_>
          17 15 12 4 2.</_></rects>
      <tilted>0</tilted></_>
    <_>
      <rects>
        <_>
          17 20 10 12 -1.</_>
        <_>
          22 20 5 12 2.</_></rects>
      <tilted>0</tilted></_>
    <_>
      <rects>
        <_>
          17 36 19 12 -1.</_>
        <_>
          17 42 19 6 2.</_></rects>
      <tilted>0</tilted></_>
    <_>
      <rects>
        <_>
          18 30 27 4 -1.</_>
        <_>
          18 32 27 2 2.</_></rects>
      <tilted>0</tilted></_>
    <_>
      <rects>
        <_>
          19 20 12 9 -1.</_>
        <_>
          25 20 6 9 2.</_></rects>
      <tilted>0</tilted></_>
    <_>
      <rects>
        <_>
          19 43 15 3 -1.</_>
        <_>
          24 43 5 3 3.</_></rects>
      <tilted>0</tilted></_>
    <_>
      <rects>
        <_>
          20 9 3 30 -1.</_>
        <_>
          20 19 3 10 3.</_></rects>
      <tilted>0</tilted></_>
    <_>
      <rects>
        <_>
          20 17 14 4 -1.</_>
        <_>
          27 17 7 4 2.</_></rects>
      <tilted>0</tilted></_>
    <_>
      <rects>
        <_>
          21 11 9 8 -1.</_>
        <_>
          21 15 9 4 2.</_></rects>
      <tilted>0</tilted></_>
    <_>
      <rects>
        <_>
          22 41 22 4 -1.</_>
        <_>
          33 41 11 4 2.</_></rects>
      <tilted>0</tilted></_>
    <_>
      <rects>
        <_>
          24 0 24 50 -1.</_>
        <_>
          24 0 12 25 2.</_>
        <_>
          36 25 12 25 2.</_></rects>
      <tilted>0</tilted></_>
    <_>
      <rects>
        <_>
          26 20 12 4 -1.</_>
        <_>
          26 20 6 2 2.</_>
        <_>
          32 22 6 2 2.</_></rects>
      <tilted>0</tilted></_>
    <_>
      <rects>
        <_>
          28 34 22 5 -1.</_>
        <_>
          39 34 11 5 2.</_></rects>
      <tilted>0</tilted></_>
    <_>
      <rects>
        <_>
          29 6 16 4 -1.</_>
        <_>
          29 6 8 2 2.</_>
        <_>
          37 8 8 2 2.</_></rects>
      <tilted>0</tilted></_>
    <_>
      <rects>
        <_>
          31 5 16 20 -1.</_>
        <_>
          31 5 8 10 2.</_>
        <_>
          39 15 8 10 2.</_></rects>
      <tilted>0</tilted></_>
    <_>
      <rects>
        <_>
          32 21 6 2 -1.</_>
        <_>
          35 21 3 2 2.</_></rects>
      <tilted>0</tilted></_>
    <_>
      <rects>
        <_>
          32 30 16 11 -1.</_>
        <_>
          40 30 8 11 2.</_></rects>
      <tilted>0</tilted></_>
    <_>
      <rects>
        <_>
          33 36 16 1 -1.</_>
        <_>
          41 36 8 1 2.</_></rects>
      <tilted>0</tilted></_>
    <_>
      <rects>
        <_>
          34 22 8 24 -1.</_>
        <_>
          38 22 4 24 2.</_></rects>
      <tilted>0</tilted></_>
    <_>
      <rects>
        <_>
          34 31 12 10 -1.</_>
        <_>
          40 31 6 10 2.</_></rects>
      <tilted>0</tilted></_>
    <_>
      <rects>
        <_>
          37 14 4 6 -1.</_>
        <_>
          37 16 4 2 3.</_></rects>
      <tilted>0</tilted></_>
    <_>
      <rects>
        <_>
          40 30 2 8 -1.</_>
        <_>
          41 30 1 8 2.</_></rects>
      <tilted>0</tilted></_>
    <_>
      <rects>
        <_>
          42 27 3 6 -1.</_>
        <_>
          42 30 3 3 2.</_></rects>
      <tilted>0</tilted></_></features></cascade>
</opencv_storage>
