<?xml version="1.0"?>
<opencv_storage>
<cascade>
  <stageType>BOOST</stageType>
  <featureType>LBP</featureType>
  <height>24</height>
  <width>24</width>
  <stageParams>
    <boostType>GAB</boostType>
    <minHitRate>9.9500000476837158e-01</minHitRate>
    <maxFalseAlarm>5.0000000000000000e-01</maxFalseAlarm>
    <weightTrimRate>9.4999999999999996e-01</weightTrimRate>
    <maxDepth>1</maxDepth>
    <maxWeakCount>100</maxWeakCount></stageParams>
  <featureParams>
    <maxCatCount>256</maxCatCount>
    <featSize>1</featSize></featureParams>
  <stageNum>6</stageNum>
  <stages>
    <!-- stage 0 -->
    <_>
      <maxWeakCount>2</maxWeakCount>
      <stageThreshold>-5.7856827974319458e-02</stageThreshold>
      <weakClassifiers>
        <_>
          <internalNodes>
            0 -1 2 -572533281 -711867041 151011647 -149618485 1091094735
            -585465702 135187355 -538971441</internalNodes>
          <leafValues>
            -9.7884130477905273e-01 9.2906403541564941e-01</leafValues></_>
        <_>
          <internalNodes>
            0 -1 5 -714485249 -720252783 -981367459 -552531761
            1082775035 -804781823 -922506293 -606340401</internalNodes>
          <leafValues>
            -9.5113533735275269e-01 9.2098450660705566e-01</leafValues></_></weakClassifiers></_>
    <!-- stage 1 -->
    <_>
      <maxWeakCount>2</maxWeakCount>
      <stageThreshold>-2.2493597865104675e-01</stageThreshold>
      <weakClassifiers>
        <_>
          <internalNodes>
            0 -1 10 -225772801 -7631929 -116918785 -5531729 -67633153
            -87033345 -5768193 -4194305</internalNodes>
          <leafValues>
            -9.0750259160995483e-01 7.2675520181655884e-01</leafValues></_>
        <_>
          <internalNodes>
            0 -1 0 -816861441 -545786945 -1881693441 -11297 -1068184321
            -606090561 -1918324993 -4194625</internalNodes>
          <leafValues>
            -9.1484111547470093e-01 6.8256658315658569e-01</leafValues></_></weakClassifiers></_>
    <!-- stage 2 -->
    <_>
      <maxWeakCount>2</maxWeakCount>
      <stageThreshold>-3.6944979429244995e-01</stageThreshold>
      <weakClassifiers>
        <_>
          <internalNodes>
            0 -1 1 805251903 -304089637 1909970431 -6299685 -1374474309
            -862312385 -68419841 -1</internalNodes>
          <leafValues>
            -9.2853218317031860e-01 5.8340388536453247e-01</leafValues></_>
        <_>
          <internalNodes>
            0 -1 3 -536931043 -513 -653592066 -201656066 -75497508
            -19672185 -66565 -1025</internalNodes>
          <leafValues>
            -9.5285367965698242e-01 5.6146293878555298e-01</leafValues></_></weakClassifiers></_>
    <!-- stage 3 -->
    <_>
      <maxWeakCount>2</maxWeakCount>
      <stageThreshold>-3.9863032102584839e-01</stageThreshold>
      <weakClassifiers>
        <_>
          <internalNodes>
            0 -1 4 1577058303 -572539425 -41 -1051675 1298096127
            -606082577 -808461315 -1033</internalNodes>
          <leafValues>
            -9.2905408143997192e-01 5.3104573488235474e-01</leafValues></_>
        <_>
          <internalNodes>
            0 -1 12 -85987809 -9313 -219488833 -214700793 -84672721
            -6438609 -220200961 -265031889</internalNodes>
          <leafValues>
            -9.2967605590820313e-01 5.5548232793807983e-01</leafValues></_></weakClassifiers></_>
    <!-- stage 4 -->
    <_>
      <maxWeakCount>3</maxWeakCount>
      <stageThreshold>-1.1703608036041260e+00</stageThreshold>
      <weakClassifiers>
        <_>
          <internalNodes>
            0 -1 8 -1286 -2100481 2144536799 -6241 -221053186 -123016453
            -283383377 -13895185</internalNodes>
          <leafValues>
            -9.1804212331771851e-01 4.9316170811653137e-01</leafValues></_>
        <_>
          <internalNodes>
            0 -1 6 1005535231 -572786219 -10486817 -270664737 1523013852
            -33819745 -20254978 -17829153</internalNodes>
          <leafValues>
            -8.5395258665084839e-01 5.5715042352676392e-01</leafValues></_>
        <_>
          <internalNodes>
            0 -1 11 -279449601 -294179305 -1642480336 -1344289865
            -1468724464 -1393481721 -1515605867 -268437505</internalNodes>
          <leafValues>
            -8.0946910381317139e-01 6.6203403472900391e-01</leafValues></_></weakClassifiers></_>
    <!-- stage 5 -->
    <_>
      <maxWeakCount>2</maxWeakCount>
      <stageThreshold>-3.4460014104843140e-01</stageThreshold>
      <weakClassifiers>
        <_>
          <internalNodes>
            0 -1 7 -135006209 -141034017 -7627841 -17978755 -146802689
            -72619777 1460397563 -2098277</internalNodes>
          <leafValues>
            -8.2546931505203247e-01 6.0932946205139160e-01</leafValues></_>
        <_>
          <internalNodes>
            0 -1 9 -263986 -33557299 -615121153 -178260705 -1057437457
            -575088133 -70272257 -574893601</internalNodes>
          <leafValues>
            -9.4581317901611328e-01 4.8086914420127869e-01</leafValues></_></weakClassifiers></_></stages>
  <features>
    <_>
      <rect>
        2 8 5 3</rect></_>
    <_>
      <rect>
        4 6 1 1</rect></_>
    <_>
      <rect>
        4 7 4 4</rect></_>
    <_>
      <rect>
        4 9 2 2</rect></_>
    <_>
      <rect>
        5 7 4 4</rect></_>
    <_>
      <rect>
        5 8 4 4</rect></_>
    <_>
      <rect>
        5 9 1 1</rect></_>
    <_>
      <rect>
        6 9 3 2</rect></_>
    <_>
      <rect>
        6 13 3 3</rect></_>
    <_>
      <rect>
        7 14 3 2</rect></_>
    <_>
      <rect>
        9 9 3 3</rect></_>
    <_>
      <rect>
        11 10 1 3</rect></_>
    <_>
      <rect>
        11 12 2 2</rect></_></features></cascade>
</opencv_storage>
